<?xml version="1.0"?>
<!-- DTD for the XMLBIF 0.3 format -->
<!DOCTYPE BIF [
	<!ELEMENT BIF ( NETWORK )*>
	      <!ATTLIST BIF VERSION CDATA #REQUIRED>
	<!ELEMENT NETWORK ( NAME, ( PROPERTY | VARIABLE | DEFINITION )* )>
	<!ELEMENT NAME (#PCDATA)>
	<!ELEMENT VARIABLE ( NAME, ( OUTCOME |  PROPERTY )* ) >
	      <!ATTLIST VARIABLE TYPE (nature|decision|utility) "nature">
	<!ELEMENT OUTCOME (#PCDATA)>
	<!ELEMENT DEFINITION ( FOR | GIVEN | TABLE | PROPERTY )* >
	<!ELEMENT FOR (#PCDATA)>
	<!ELEMENT GIVEN (#PCDATA)>
	<!ELEMENT TABLE (#PCDATA)>
	<!ELEMENT PROPERTY (#PCDATA)>
]>


<BIF VERSION="0.3">
<NETWORK>
<NAME>Asthma</NAME>
<VARIABLE TYPE="nature">
	<NAME>Asthma</NAME>
	<OUTCOME>0</OUTCOME>
	<OUTCOME>1</OUTCOME>
	<PROPERTY>position = (360,0)</PROPERTY>
</VARIABLE>
<VARIABLE TYPE="nature">
	<NAME>Serpinb9g</NAME>
	<OUTCOME>0</OUTCOME>
	<OUTCOME>1</OUTCOME>
	<OUTCOME>2</OUTCOME>
	<PROPERTY>position = (360,90)</PROPERTY>
</VARIABLE>
<VARIABLE TYPE="nature">
	<NAME>Ptpn2</NAME>
	<OUTCOME>0</OUTCOME>
	<OUTCOME>1</OUTCOME>
	<OUTCOME>2</OUTCOME>
	<PROPERTY>position = (0,180)</PROPERTY>
</VARIABLE>
<VARIABLE TYPE="nature">
	<NAME>Enam</NAME>
	<OUTCOME>0</OUTCOME>
	<OUTCOME>1</OUTCOME>
	<OUTCOME>2</OUTCOME>
	<PROPERTY>position = (60,180)</PROPERTY>
</VARIABLE>
<VARIABLE TYPE="nature">
	<NAME>Hexim1</NAME>
	<OUTCOME>0</OUTCOME>
	<OUTCOME>1</OUTCOME>
	<OUTCOME>2</OUTCOME>
	<PROPERTY>position = (120,180)</PROPERTY>
</VARIABLE>
<VARIABLE TYPE="nature">
	<NAME>Prom1</NAME>
	<OUTCOME>0</OUTCOME>
	<OUTCOME>1</OUTCOME>
	<OUTCOME>2</OUTCOME>
	<PROPERTY>position = (180,180)</PROPERTY>
</VARIABLE>
<VARIABLE TYPE="nature">
	<NAME>Ptov1</NAME>
	<OUTCOME>0</OUTCOME>
	<OUTCOME>1</OUTCOME>
	<OUTCOME>2</OUTCOME>
	<PROPERTY>position = (240,180)</PROPERTY>
</VARIABLE>
<VARIABLE TYPE="nature">
	<NAME>Cox4i2</NAME>
	<OUTCOME>0</OUTCOME>
	<OUTCOME>1</OUTCOME>
	<OUTCOME>2</OUTCOME>
	<PROPERTY>position = (300,180)</PROPERTY>
</VARIABLE>
<VARIABLE TYPE="nature">
	<NAME>Ndufb11</NAME>
	<OUTCOME>0</OUTCOME>
	<OUTCOME>1</OUTCOME>
	<OUTCOME>2</OUTCOME>
	<PROPERTY>position = (360,180)</PROPERTY>
</VARIABLE>
<VARIABLE TYPE="nature">
	<NAME>Itgax</NAME>
	<OUTCOME>0</OUTCOME>
	<OUTCOME>1</OUTCOME>
	<OUTCOME>2</OUTCOME>
	<PROPERTY>position = (420,180)</PROPERTY>
</VARIABLE>
<VARIABLE TYPE="nature">
	<NAME>Mrpl20</NAME>
	<OUTCOME>0</OUTCOME>
	<OUTCOME>1</OUTCOME>
	<OUTCOME>2</OUTCOME>
	<PROPERTY>position = (480,180)</PROPERTY>
</VARIABLE>
<VARIABLE TYPE="nature">
	<NAME>Anapc11</NAME>
	<OUTCOME>0</OUTCOME>
	<OUTCOME>1</OUTCOME>
	<OUTCOME>2</OUTCOME>
	<PROPERTY>position = (540,180)</PROPERTY>
</VARIABLE>
<VARIABLE TYPE="nature">
	<NAME>Adra1b</NAME>
	<OUTCOME>0</OUTCOME>
	<OUTCOME>1</OUTCOME>
	<OUTCOME>2</OUTCOME>
	<PROPERTY>position = (600,180)</PROPERTY>
</VARIABLE>
<VARIABLE TYPE="nature">
	<NAME>H28</NAME>
	<OUTCOME>0</OUTCOME>
	<OUTCOME>1</OUTCOME>
	<OUTCOME>2</OUTCOME>
	<PROPERTY>position = (660,180)</PROPERTY>
</VARIABLE>
<VARIABLE TYPE="nature">
	<NAME>Tshr</NAME>
	<OUTCOME>0</OUTCOME>
	<OUTCOME>1</OUTCOME>
	<OUTCOME>2</OUTCOME>
	<PROPERTY>position = (720,180)</PROPERTY>
</VARIABLE>
<DEFINITION>
<FOR>Asthma</FOR>
<TABLE>
0.16666666666666666 0.8333333333333334 
</TABLE>
</DEFINITION>
<DEFINITION>
<FOR>Serpinb9g</FOR>
	<GIVEN>Asthma</GIVEN>
<TABLE>
0.3333333333333333 0.3333333333333333 0.3333333333333333 
0.14285714285714285 0.42857142857142855 0.42857142857142855 
</TABLE>
</DEFINITION>
<DEFINITION>
<FOR>Ptpn2</FOR>
	<GIVEN>Asthma</GIVEN>
	<GIVEN>Serpinb9g</GIVEN>
<TABLE>
0.3333333333333333 0.3333333333333333 0.3333333333333333 
0.3333333333333333 0.3333333333333333 0.3333333333333333 
0.3333333333333333 0.3333333333333333 0.3333333333333333 
0.3333333333333333 0.3333333333333333 0.3333333333333333 
0.2 0.6 0.2 
0.2 0.2 0.6 
</TABLE>
</DEFINITION>
<DEFINITION>
<FOR>Enam</FOR>
	<GIVEN>Asthma</GIVEN>
	<GIVEN>Serpinb9g</GIVEN>
<TABLE>
0.3333333333333333 0.3333333333333333 0.3333333333333333 
0.3333333333333333 0.3333333333333333 0.3333333333333333 
0.3333333333333333 0.3333333333333333 0.3333333333333333 
0.3333333333333333 0.3333333333333333 0.3333333333333333 
0.2 0.6 0.2 
0.2 0.2 0.6 
</TABLE>
</DEFINITION>
<DEFINITION>
<FOR>Hexim1</FOR>
	<GIVEN>Asthma</GIVEN>
	<GIVEN>Serpinb9g</GIVEN>
<TABLE>
0.3333333333333333 0.3333333333333333 0.3333333333333333 
0.3333333333333333 0.3333333333333333 0.3333333333333333 
0.3333333333333333 0.3333333333333333 0.3333333333333333 
0.3333333333333333 0.3333333333333333 0.3333333333333333 
0.2 0.6 0.2 
0.2 0.2 0.6 
</TABLE>
</DEFINITION>
<DEFINITION>
<FOR>Prom1</FOR>
	<GIVEN>Asthma</GIVEN>
	<GIVEN>Serpinb9g</GIVEN>
<TABLE>
0.3333333333333333 0.3333333333333333 0.3333333333333333 
0.3333333333333333 0.3333333333333333 0.3333333333333333 
0.3333333333333333 0.3333333333333333 0.3333333333333333 
0.3333333333333333 0.3333333333333333 0.3333333333333333 
0.2 0.6 0.2 
0.2 0.2 0.6 
</TABLE>
</DEFINITION>
<DEFINITION>
<FOR>Ptov1</FOR>
	<GIVEN>Asthma</GIVEN>
	<GIVEN>Serpinb9g</GIVEN>
<TABLE>
0.3333333333333333 0.3333333333333333 0.3333333333333333 
0.3333333333333333 0.3333333333333333 0.3333333333333333 
0.3333333333333333 0.3333333333333333 0.3333333333333333 
0.3333333333333333 0.3333333333333333 0.3333333333333333 
0.2 0.6 0.2 
0.2 0.2 0.6 
</TABLE>
</DEFINITION>
<DEFINITION>
<FOR>Cox4i2</FOR>
	<GIVEN>Asthma</GIVEN>
	<GIVEN>Serpinb9g</GIVEN>
<TABLE>
0.3333333333333333 0.3333333333333333 0.3333333333333333 
0.3333333333333333 0.3333333333333333 0.3333333333333333 
0.3333333333333333 0.3333333333333333 0.3333333333333333 
0.3333333333333333 0.3333333333333333 0.3333333333333333 
0.2 0.6 0.2 
0.2 0.2 0.6 
</TABLE>
</DEFINITION>
<DEFINITION>
<FOR>Ndufb11</FOR>
	<GIVEN>Asthma</GIVEN>
	<GIVEN>Serpinb9g</GIVEN>
<TABLE>
0.3333333333333333 0.3333333333333333 0.3333333333333333 
0.3333333333333333 0.3333333333333333 0.3333333333333333 
0.3333333333333333 0.3333333333333333 0.3333333333333333 
0.3333333333333333 0.3333333333333333 0.3333333333333333 
0.2 0.6 0.2 
0.2 0.2 0.6 
</TABLE>
</DEFINITION>
<DEFINITION>
<FOR>Itgax</FOR>
	<GIVEN>Asthma</GIVEN>
	<GIVEN>Serpinb9g</GIVEN>
<TABLE>
0.3333333333333333 0.3333333333333333 0.3333333333333333 
0.3333333333333333 0.3333333333333333 0.3333333333333333 
0.3333333333333333 0.3333333333333333 0.3333333333333333 
0.3333333333333333 0.3333333333333333 0.3333333333333333 
0.2 0.6 0.2 
0.2 0.2 0.6 
</TABLE>
</DEFINITION>
<DEFINITION>
<FOR>Mrpl20</FOR>
	<GIVEN>Asthma</GIVEN>
	<GIVEN>Serpinb9g</GIVEN>
<TABLE>
0.3333333333333333 0.3333333333333333 0.3333333333333333 
0.3333333333333333 0.3333333333333333 0.3333333333333333 
0.3333333333333333 0.3333333333333333 0.3333333333333333 
0.3333333333333333 0.3333333333333333 0.3333333333333333 
0.6 0.2 0.2 
0.2 0.2 0.6 
</TABLE>
</DEFINITION>
<DEFINITION>
<FOR>Anapc11</FOR>
	<GIVEN>Asthma</GIVEN>
	<GIVEN>Serpinb9g</GIVEN>
<TABLE>
0.3333333333333333 0.3333333333333333 0.3333333333333333 
0.3333333333333333 0.3333333333333333 0.3333333333333333 
0.3333333333333333 0.3333333333333333 0.3333333333333333 
0.3333333333333333 0.3333333333333333 0.3333333333333333 
0.2 0.2 0.6 
0.6 0.2 0.2 
</TABLE>
</DEFINITION>
<DEFINITION>
<FOR>Adra1b</FOR>
	<GIVEN>Asthma</GIVEN>
	<GIVEN>Serpinb9g</GIVEN>
<TABLE>
0.3333333333333333 0.3333333333333333 0.3333333333333333 
0.3333333333333333 0.3333333333333333 0.3333333333333333 
0.3333333333333333 0.3333333333333333 0.3333333333333333 
0.3333333333333333 0.3333333333333333 0.3333333333333333 
0.2 0.2 0.6 
0.6 0.2 0.2 
</TABLE>
</DEFINITION>
<DEFINITION>
<FOR>H28</FOR>
	<GIVEN>Asthma</GIVEN>
	<GIVEN>Serpinb9g</GIVEN>
<TABLE>
0.3333333333333333 0.3333333333333333 0.3333333333333333 
0.3333333333333333 0.3333333333333333 0.3333333333333333 
0.3333333333333333 0.3333333333333333 0.3333333333333333 
0.3333333333333333 0.3333333333333333 0.3333333333333333 
0.2 0.2 0.6 
0.6 0.2 0.2 
</TABLE>
</DEFINITION>
<DEFINITION>
<FOR>Tshr</FOR>
	<GIVEN>Asthma</GIVEN>
	<GIVEN>Serpinb9g</GIVEN>
<TABLE>
0.3333333333333333 0.3333333333333333 0.3333333333333333 
0.3333333333333333 0.3333333333333333 0.3333333333333333 
0.3333333333333333 0.3333333333333333 0.3333333333333333 
0.3333333333333333 0.3333333333333333 0.3333333333333333 
0.2 0.2 0.6 
0.6 0.2 0.2 
</TABLE>
</DEFINITION>
</NETWORK>
</BIF>
