<?xml version="1.0"?>
<!-- DTD for the XMLBIF 0.3 format -->
<!DOCTYPE BIF [
	<!ELEMENT BIF ( NETWORK )*>
	      <!ATTLIST BIF VERSION CDATA #REQUIRED>
	<!ELEMENT NETWORK ( NAME, ( PROPERTY | VARIABLE | DEFINITION )* )>
	<!ELEMENT NAME (#PCDATA)>
	<!ELEMENT VARIABLE ( NAME, ( OUTCOME |  PROPERTY )* ) >
	      <!ATTLIST VARIABLE TYPE (nature|decision|utility) "nature">
	<!ELEMENT OUTCOME (#PCDATA)>
	<!ELEMENT DEFINITION ( FOR | GIVEN | TABLE | PROPERTY )* >
	<!ELEMENT FOR (#PCDATA)>
	<!ELEMENT GIVEN (#PCDATA)>
	<!ELEMENT TABLE (#PCDATA)>
	<!ELEMENT PROPERTY (#PCDATA)>
]>


<BIF VERSION="0.3">
<NETWORK>
<NAME>carcinoma</NAME>
<VARIABLE TYPE="nature">
	<NAME>Carcinoma</NAME>
	<OUTCOME>0</OUTCOME>
	<OUTCOME>1</OUTCOME>
	<PROPERTY>position = (3283,0)</PROPERTY>
</VARIABLE>
<VARIABLE TYPE="nature">
	<NAME>ANGPTL4</NAME>
	<OUTCOME>0</OUTCOME>
	<OUTCOME>1</OUTCOME>
	<OUTCOME>2</OUTCOME>
	<PROPERTY>position = (3350,90)</PROPERTY>
</VARIABLE>
<VARIABLE TYPE="nature">
	<NAME>EGLN3</NAME>
	<OUTCOME>0</OUTCOME>
	<OUTCOME>1</OUTCOME>
	<OUTCOME>2</OUTCOME>
	<PROPERTY>position = (0,180)</PROPERTY>
</VARIABLE>
<VARIABLE TYPE="nature">
	<NAME>NETO2</NAME>
	<OUTCOME>0</OUTCOME>
	<OUTCOME>1</OUTCOME>
	<OUTCOME>2</OUTCOME>
	<PROPERTY>position = (67,180)</PROPERTY>
</VARIABLE>
<VARIABLE TYPE="nature">
	<NAME>SP100</NAME>
	<OUTCOME>0</OUTCOME>
	<OUTCOME>1</OUTCOME>
	<OUTCOME>2</OUTCOME>
	<PROPERTY>position = (134,180)</PROPERTY>
</VARIABLE>
<VARIABLE TYPE="nature">
	<NAME>FAM49A</NAME>
	<OUTCOME>0</OUTCOME>
	<OUTCOME>1</OUTCOME>
	<OUTCOME>2</OUTCOME>
	<PROPERTY>position = (201,180)</PROPERTY>
</VARIABLE>
<VARIABLE TYPE="nature">
	<NAME>FYB</NAME>
	<OUTCOME>0</OUTCOME>
	<OUTCOME>1</OUTCOME>
	<OUTCOME>2</OUTCOME>
	<PROPERTY>position = (268,180)</PROPERTY>
</VARIABLE>
<VARIABLE TYPE="nature">
	<NAME>IKZF1</NAME>
	<OUTCOME>0</OUTCOME>
	<OUTCOME>1</OUTCOME>
	<OUTCOME>2</OUTCOME>
	<PROPERTY>position = (335,180)</PROPERTY>
</VARIABLE>
<VARIABLE TYPE="nature">
	<NAME>GM2A</NAME>
	<OUTCOME>0</OUTCOME>
	<OUTCOME>1</OUTCOME>
	<OUTCOME>2</OUTCOME>
	<PROPERTY>position = (402,180)</PROPERTY>
</VARIABLE>
<VARIABLE TYPE="nature">
	<NAME>S100A10</NAME>
	<OUTCOME>0</OUTCOME>
	<OUTCOME>1</OUTCOME>
	<OUTCOME>2</OUTCOME>
	<PROPERTY>position = (469,180)</PROPERTY>
</VARIABLE>
<VARIABLE TYPE="nature">
	<NAME>CHST12</NAME>
	<OUTCOME>0</OUTCOME>
	<OUTCOME>1</OUTCOME>
	<OUTCOME>2</OUTCOME>
	<PROPERTY>position = (536,180)</PROPERTY>
</VARIABLE>
<VARIABLE TYPE="nature">
	<NAME>SP110</NAME>
	<OUTCOME>0</OUTCOME>
	<OUTCOME>1</OUTCOME>
	<OUTCOME>2</OUTCOME>
	<PROPERTY>position = (603,180)</PROPERTY>
</VARIABLE>
<VARIABLE TYPE="nature">
	<NAME>LIPA</NAME>
	<OUTCOME>0</OUTCOME>
	<OUTCOME>1</OUTCOME>
	<OUTCOME>2</OUTCOME>
	<PROPERTY>position = (670,180)</PROPERTY>
</VARIABLE>
<VARIABLE TYPE="nature">
	<NAME>PPP1R3C</NAME>
	<OUTCOME>0</OUTCOME>
	<OUTCOME>1</OUTCOME>
	<OUTCOME>2</OUTCOME>
	<PROPERTY>position = (737,180)</PROPERTY>
</VARIABLE>
<VARIABLE TYPE="nature">
	<NAME>SERPINB1</NAME>
	<OUTCOME>0</OUTCOME>
	<OUTCOME>1</OUTCOME>
	<OUTCOME>2</OUTCOME>
	<PROPERTY>position = (804,180)</PROPERTY>
</VARIABLE>
<VARIABLE TYPE="nature">
	<NAME>ITPR3</NAME>
	<OUTCOME>0</OUTCOME>
	<OUTCOME>1</OUTCOME>
	<OUTCOME>2</OUTCOME>
	<PROPERTY>position = (871,180)</PROPERTY>
</VARIABLE>
<VARIABLE TYPE="nature">
	<NAME>UMOD</NAME>
	<OUTCOME>0</OUTCOME>
	<OUTCOME>1</OUTCOME>
	<OUTCOME>2</OUTCOME>
	<PROPERTY>position = (938,180)</PROPERTY>
</VARIABLE>
<VARIABLE TYPE="nature">
	<NAME>SLC13A3</NAME>
	<OUTCOME>0</OUTCOME>
	<OUTCOME>1</OUTCOME>
	<OUTCOME>2</OUTCOME>
	<PROPERTY>position = (1005,180)</PROPERTY>
</VARIABLE>
<VARIABLE TYPE="nature">
	<NAME>SLC22A8</NAME>
	<OUTCOME>0</OUTCOME>
	<OUTCOME>1</OUTCOME>
	<OUTCOME>2</OUTCOME>
	<PROPERTY>position = (1072,180)</PROPERTY>
</VARIABLE>
<VARIABLE TYPE="nature">
	<NAME>PRODH2</NAME>
	<OUTCOME>0</OUTCOME>
	<OUTCOME>1</OUTCOME>
	<OUTCOME>2</OUTCOME>
	<PROPERTY>position = (1139,180)</PROPERTY>
</VARIABLE>
<VARIABLE TYPE="nature">
	<NAME>ACPP</NAME>
	<OUTCOME>0</OUTCOME>
	<OUTCOME>1</OUTCOME>
	<OUTCOME>2</OUTCOME>
	<PROPERTY>position = (1206,180)</PROPERTY>
</VARIABLE>
<VARIABLE TYPE="nature">
	<NAME>APOH</NAME>
	<OUTCOME>0</OUTCOME>
	<OUTCOME>1</OUTCOME>
	<OUTCOME>2</OUTCOME>
	<PROPERTY>position = (1273,180)</PROPERTY>
</VARIABLE>
<VARIABLE TYPE="nature">
	<NAME>ATP1A1</NAME>
	<OUTCOME>0</OUTCOME>
	<OUTCOME>1</OUTCOME>
	<OUTCOME>2</OUTCOME>
	<PROPERTY>position = (1340,180)</PROPERTY>
</VARIABLE>
<VARIABLE TYPE="nature">
	<NAME>PPM1H</NAME>
	<OUTCOME>0</OUTCOME>
	<OUTCOME>1</OUTCOME>
	<OUTCOME>2</OUTCOME>
	<PROPERTY>position = (1407,180)</PROPERTY>
</VARIABLE>
<VARIABLE TYPE="nature">
	<NAME>FABP1</NAME>
	<OUTCOME>0</OUTCOME>
	<OUTCOME>1</OUTCOME>
	<OUTCOME>2</OUTCOME>
	<PROPERTY>position = (1474,180)</PROPERTY>
</VARIABLE>
<VARIABLE TYPE="nature">
	<NAME>SELENBP1</NAME>
	<OUTCOME>0</OUTCOME>
	<OUTCOME>1</OUTCOME>
	<OUTCOME>2</OUTCOME>
	<PROPERTY>position = (1541,180)</PROPERTY>
</VARIABLE>
<VARIABLE TYPE="nature">
	<NAME>ACY1</NAME>
	<OUTCOME>0</OUTCOME>
	<OUTCOME>1</OUTCOME>
	<OUTCOME>2</OUTCOME>
	<PROPERTY>position = (1608,180)</PROPERTY>
</VARIABLE>
<VARIABLE TYPE="nature">
	<NAME>APOC3</NAME>
	<OUTCOME>0</OUTCOME>
	<OUTCOME>1</OUTCOME>
	<OUTCOME>2</OUTCOME>
	<PROPERTY>position = (1675,180)</PROPERTY>
</VARIABLE>
<VARIABLE TYPE="nature">
	<NAME>ANK2</NAME>
	<OUTCOME>0</OUTCOME>
	<OUTCOME>1</OUTCOME>
	<OUTCOME>2</OUTCOME>
	<PROPERTY>position = (1742,180)</PROPERTY>
</VARIABLE>
<VARIABLE TYPE="nature">
	<NAME>PNPLA3</NAME>
	<OUTCOME>0</OUTCOME>
	<OUTCOME>1</OUTCOME>
	<OUTCOME>2</OUTCOME>
	<PROPERTY>position = (1809,180)</PROPERTY>
</VARIABLE>
<VARIABLE TYPE="nature">
	<NAME>PCCA</NAME>
	<OUTCOME>0</OUTCOME>
	<OUTCOME>1</OUTCOME>
	<OUTCOME>2</OUTCOME>
	<PROPERTY>position = (1876,180)</PROPERTY>
</VARIABLE>
<VARIABLE TYPE="nature">
	<NAME>CHL1</NAME>
	<OUTCOME>0</OUTCOME>
	<OUTCOME>1</OUTCOME>
	<OUTCOME>2</OUTCOME>
	<PROPERTY>position = (1943,180)</PROPERTY>
</VARIABLE>
<VARIABLE TYPE="nature">
	<NAME>DNAJC12</NAME>
	<OUTCOME>0</OUTCOME>
	<OUTCOME>1</OUTCOME>
	<OUTCOME>2</OUTCOME>
	<PROPERTY>position = (2010,180)</PROPERTY>
</VARIABLE>
<VARIABLE TYPE="nature">
	<NAME>BRP44L</NAME>
	<OUTCOME>0</OUTCOME>
	<OUTCOME>1</OUTCOME>
	<OUTCOME>2</OUTCOME>
	<PROPERTY>position = (2077,180)</PROPERTY>
</VARIABLE>
<VARIABLE TYPE="nature">
	<NAME>FGF9</NAME>
	<OUTCOME>0</OUTCOME>
	<OUTCOME>1</OUTCOME>
	<OUTCOME>2</OUTCOME>
	<PROPERTY>position = (2144,180)</PROPERTY>
</VARIABLE>
<VARIABLE TYPE="nature">
	<NAME>C19orf28</NAME>
	<OUTCOME>0</OUTCOME>
	<OUTCOME>1</OUTCOME>
	<OUTCOME>2</OUTCOME>
	<PROPERTY>position = (2211,180)</PROPERTY>
</VARIABLE>
<VARIABLE TYPE="nature">
	<NAME>USP2</NAME>
	<OUTCOME>0</OUTCOME>
	<OUTCOME>1</OUTCOME>
	<OUTCOME>2</OUTCOME>
	<PROPERTY>position = (2278,180)</PROPERTY>
</VARIABLE>
<VARIABLE TYPE="nature">
	<NAME>PPP1R1A</NAME>
	<OUTCOME>0</OUTCOME>
	<OUTCOME>1</OUTCOME>
	<OUTCOME>2</OUTCOME>
	<PROPERTY>position = (2345,180)</PROPERTY>
</VARIABLE>
<VARIABLE TYPE="nature">
	<NAME>FERMT1</NAME>
	<OUTCOME>0</OUTCOME>
	<OUTCOME>1</OUTCOME>
	<OUTCOME>2</OUTCOME>
	<PROPERTY>position = (2412,180)</PROPERTY>
</VARIABLE>
<VARIABLE TYPE="nature">
	<NAME>PLCL1</NAME>
	<OUTCOME>0</OUTCOME>
	<OUTCOME>1</OUTCOME>
	<OUTCOME>2</OUTCOME>
	<PROPERTY>position = (2479,180)</PROPERTY>
</VARIABLE>
<VARIABLE TYPE="nature">
	<NAME>QPRT</NAME>
	<OUTCOME>0</OUTCOME>
	<OUTCOME>1</OUTCOME>
	<OUTCOME>2</OUTCOME>
	<PROPERTY>position = (2546,180)</PROPERTY>
</VARIABLE>
<VARIABLE TYPE="nature">
	<NAME>TMPRSS2</NAME>
	<OUTCOME>0</OUTCOME>
	<OUTCOME>1</OUTCOME>
	<OUTCOME>2</OUTCOME>
	<PROPERTY>position = (2613,180)</PROPERTY>
</VARIABLE>
<VARIABLE TYPE="nature">
	<NAME>BDH2</NAME>
	<OUTCOME>0</OUTCOME>
	<OUTCOME>1</OUTCOME>
	<OUTCOME>2</OUTCOME>
	<PROPERTY>position = (2680,180)</PROPERTY>
</VARIABLE>
<VARIABLE TYPE="nature">
	<NAME>AQP2</NAME>
	<OUTCOME>0</OUTCOME>
	<OUTCOME>1</OUTCOME>
	<OUTCOME>2</OUTCOME>
	<PROPERTY>position = (2747,180)</PROPERTY>
</VARIABLE>
<VARIABLE TYPE="nature">
	<NAME>ERBB4</NAME>
	<OUTCOME>0</OUTCOME>
	<OUTCOME>1</OUTCOME>
	<OUTCOME>2</OUTCOME>
	<PROPERTY>position = (2814,180)</PROPERTY>
</VARIABLE>
<VARIABLE TYPE="nature">
	<NAME>PLG</NAME>
	<OUTCOME>0</OUTCOME>
	<OUTCOME>1</OUTCOME>
	<OUTCOME>2</OUTCOME>
	<PROPERTY>position = (2881,180)</PROPERTY>
</VARIABLE>
<VARIABLE TYPE="nature">
	<NAME>SLC12A3</NAME>
	<OUTCOME>0</OUTCOME>
	<OUTCOME>1</OUTCOME>
	<OUTCOME>2</OUTCOME>
	<PROPERTY>position = (2948,180)</PROPERTY>
</VARIABLE>
<VARIABLE TYPE="nature">
	<NAME>GATM</NAME>
	<OUTCOME>0</OUTCOME>
	<OUTCOME>1</OUTCOME>
	<OUTCOME>2</OUTCOME>
	<PROPERTY>position = (3015,180)</PROPERTY>
</VARIABLE>
<VARIABLE TYPE="nature">
	<NAME>TOX3</NAME>
	<OUTCOME>0</OUTCOME>
	<OUTCOME>1</OUTCOME>
	<OUTCOME>2</OUTCOME>
	<PROPERTY>position = (3082,180)</PROPERTY>
</VARIABLE>
<VARIABLE TYPE="nature">
	<NAME>FTCD</NAME>
	<OUTCOME>0</OUTCOME>
	<OUTCOME>1</OUTCOME>
	<OUTCOME>2</OUTCOME>
	<PROPERTY>position = (3149,180)</PROPERTY>
</VARIABLE>
<VARIABLE TYPE="nature">
	<NAME>ATXN7L1</NAME>
	<OUTCOME>0</OUTCOME>
	<OUTCOME>1</OUTCOME>
	<OUTCOME>2</OUTCOME>
	<PROPERTY>position = (3216,180)</PROPERTY>
</VARIABLE>
<VARIABLE TYPE="nature">
	<NAME>KIAA0907</NAME>
	<OUTCOME>0</OUTCOME>
	<OUTCOME>1</OUTCOME>
	<OUTCOME>2</OUTCOME>
	<PROPERTY>position = (3283,180)</PROPERTY>
</VARIABLE>
<VARIABLE TYPE="nature">
	<NAME>NF1</NAME>
	<OUTCOME>0</OUTCOME>
	<OUTCOME>1</OUTCOME>
	<OUTCOME>2</OUTCOME>
	<PROPERTY>position = (3350,180)</PROPERTY>
</VARIABLE>
<VARIABLE TYPE="nature">
	<NAME>HOXA7</NAME>
	<OUTCOME>0</OUTCOME>
	<OUTCOME>1</OUTCOME>
	<OUTCOME>2</OUTCOME>
	<PROPERTY>position = (3417,180)</PROPERTY>
</VARIABLE>
<VARIABLE TYPE="nature">
	<NAME>HNMT</NAME>
	<OUTCOME>0</OUTCOME>
	<OUTCOME>1</OUTCOME>
	<OUTCOME>2</OUTCOME>
	<PROPERTY>position = (3484,180)</PROPERTY>
</VARIABLE>
<VARIABLE TYPE="nature">
	<NAME>RBPJ</NAME>
	<OUTCOME>0</OUTCOME>
	<OUTCOME>1</OUTCOME>
	<OUTCOME>2</OUTCOME>
	<PROPERTY>position = (3551,180)</PROPERTY>
</VARIABLE>
<VARIABLE TYPE="nature">
	<NAME>MDFIC</NAME>
	<OUTCOME>0</OUTCOME>
	<OUTCOME>1</OUTCOME>
	<OUTCOME>2</OUTCOME>
	<PROPERTY>position = (3618,180)</PROPERTY>
</VARIABLE>
<VARIABLE TYPE="nature">
	<NAME>RFX2</NAME>
	<OUTCOME>0</OUTCOME>
	<OUTCOME>1</OUTCOME>
	<OUTCOME>2</OUTCOME>
	<PROPERTY>position = (3685,180)</PROPERTY>
</VARIABLE>
<VARIABLE TYPE="nature">
	<NAME>PPIA</NAME>
	<OUTCOME>0</OUTCOME>
	<OUTCOME>1</OUTCOME>
	<OUTCOME>2</OUTCOME>
	<PROPERTY>position = (3752,180)</PROPERTY>
</VARIABLE>
<VARIABLE TYPE="nature">
	<NAME>IGHG1</NAME>
	<OUTCOME>0</OUTCOME>
	<OUTCOME>1</OUTCOME>
	<OUTCOME>2</OUTCOME>
	<PROPERTY>position = (3819,180)</PROPERTY>
</VARIABLE>
<VARIABLE TYPE="nature">
	<NAME>SOX1</NAME>
	<OUTCOME>0</OUTCOME>
	<OUTCOME>1</OUTCOME>
	<OUTCOME>2</OUTCOME>
	<PROPERTY>position = (3886,180)</PROPERTY>
</VARIABLE>
<VARIABLE TYPE="nature">
	<NAME>PDLIM3</NAME>
	<OUTCOME>0</OUTCOME>
	<OUTCOME>1</OUTCOME>
	<OUTCOME>2</OUTCOME>
	<PROPERTY>position = (3953,180)</PROPERTY>
</VARIABLE>
<VARIABLE TYPE="nature">
	<NAME>GMEB1</NAME>
	<OUTCOME>0</OUTCOME>
	<OUTCOME>1</OUTCOME>
	<OUTCOME>2</OUTCOME>
	<PROPERTY>position = (4020,180)</PROPERTY>
</VARIABLE>
<VARIABLE TYPE="nature">
	<NAME>CNOT2</NAME>
	<OUTCOME>0</OUTCOME>
	<OUTCOME>1</OUTCOME>
	<OUTCOME>2</OUTCOME>
	<PROPERTY>position = (4087,180)</PROPERTY>
</VARIABLE>
<VARIABLE TYPE="nature">
	<NAME>DAB1</NAME>
	<OUTCOME>0</OUTCOME>
	<OUTCOME>1</OUTCOME>
	<OUTCOME>2</OUTCOME>
	<PROPERTY>position = (4154,180)</PROPERTY>
</VARIABLE>
<VARIABLE TYPE="nature">
	<NAME>ITGB2</NAME>
	<OUTCOME>0</OUTCOME>
	<OUTCOME>1</OUTCOME>
	<OUTCOME>2</OUTCOME>
	<PROPERTY>position = (67,90)</PROPERTY>
</VARIABLE>
<VARIABLE TYPE="nature">
	<NAME>CNPY3</NAME>
	<OUTCOME>0</OUTCOME>
	<OUTCOME>1</OUTCOME>
	<OUTCOME>2</OUTCOME>
	<PROPERTY>position = (4221,180)</PROPERTY>
</VARIABLE>
<VARIABLE TYPE="nature">
	<NAME>PHLDA2</NAME>
	<OUTCOME>0</OUTCOME>
	<OUTCOME>1</OUTCOME>
	<OUTCOME>2</OUTCOME>
	<PROPERTY>position = (4288,180)</PROPERTY>
</VARIABLE>
<VARIABLE TYPE="nature">
	<NAME>TUBB1</NAME>
	<OUTCOME>0</OUTCOME>
	<OUTCOME>1</OUTCOME>
	<OUTCOME>2</OUTCOME>
	<PROPERTY>position = (4355,180)</PROPERTY>
</VARIABLE>
<VARIABLE TYPE="nature">
	<NAME>CCNK</NAME>
	<OUTCOME>0</OUTCOME>
	<OUTCOME>1</OUTCOME>
	<OUTCOME>2</OUTCOME>
	<PROPERTY>position = (4422,180)</PROPERTY>
</VARIABLE>
<VARIABLE TYPE="nature">
	<NAME>FDFT1</NAME>
	<OUTCOME>0</OUTCOME>
	<OUTCOME>1</OUTCOME>
	<OUTCOME>2</OUTCOME>
	<PROPERTY>position = (4489,180)</PROPERTY>
</VARIABLE>
<VARIABLE TYPE="nature">
	<NAME>CDKL3</NAME>
	<OUTCOME>0</OUTCOME>
	<OUTCOME>1</OUTCOME>
	<OUTCOME>2</OUTCOME>
	<PROPERTY>position = (4556,180)</PROPERTY>
</VARIABLE>
<VARIABLE TYPE="nature">
	<NAME>BBX</NAME>
	<OUTCOME>0</OUTCOME>
	<OUTCOME>1</OUTCOME>
	<OUTCOME>2</OUTCOME>
	<PROPERTY>position = (4623,180)</PROPERTY>
</VARIABLE>
<VARIABLE TYPE="nature">
	<NAME>UBE3A</NAME>
	<OUTCOME>0</OUTCOME>
	<OUTCOME>1</OUTCOME>
	<OUTCOME>2</OUTCOME>
	<PROPERTY>position = (4690,180)</PROPERTY>
</VARIABLE>
<VARIABLE TYPE="nature">
	<NAME>ITGB1BP1</NAME>
	<OUTCOME>0</OUTCOME>
	<OUTCOME>1</OUTCOME>
	<OUTCOME>2</OUTCOME>
	<PROPERTY>position = (4757,180)</PROPERTY>
</VARIABLE>
<VARIABLE TYPE="nature">
	<NAME>CDH11</NAME>
	<OUTCOME>0</OUTCOME>
	<OUTCOME>1</OUTCOME>
	<OUTCOME>2</OUTCOME>
	<PROPERTY>position = (4824,180)</PROPERTY>
</VARIABLE>
<VARIABLE TYPE="nature">
	<NAME>NSFL1C</NAME>
	<OUTCOME>0</OUTCOME>
	<OUTCOME>1</OUTCOME>
	<OUTCOME>2</OUTCOME>
	<PROPERTY>position = (4891,180)</PROPERTY>
</VARIABLE>
<VARIABLE TYPE="nature">
	<NAME>ZNF141</NAME>
	<OUTCOME>0</OUTCOME>
	<OUTCOME>1</OUTCOME>
	<OUTCOME>2</OUTCOME>
	<PROPERTY>position = (4958,180)</PROPERTY>
</VARIABLE>
<VARIABLE TYPE="nature">
	<NAME>PADI1</NAME>
	<OUTCOME>0</OUTCOME>
	<OUTCOME>1</OUTCOME>
	<OUTCOME>2</OUTCOME>
	<PROPERTY>position = (5025,180)</PROPERTY>
</VARIABLE>
<VARIABLE TYPE="nature">
	<NAME>LTBP4</NAME>
	<OUTCOME>0</OUTCOME>
	<OUTCOME>1</OUTCOME>
	<OUTCOME>2</OUTCOME>
	<PROPERTY>position = (5092,180)</PROPERTY>
</VARIABLE>
<VARIABLE TYPE="nature">
	<NAME>TOR3A</NAME>
	<OUTCOME>0</OUTCOME>
	<OUTCOME>1</OUTCOME>
	<OUTCOME>2</OUTCOME>
	<PROPERTY>position = (5159,180)</PROPERTY>
</VARIABLE>
<VARIABLE TYPE="nature">
	<NAME>UBFD1</NAME>
	<OUTCOME>0</OUTCOME>
	<OUTCOME>1</OUTCOME>
	<OUTCOME>2</OUTCOME>
	<PROPERTY>position = (5226,180)</PROPERTY>
</VARIABLE>
<VARIABLE TYPE="nature">
	<NAME>TAF6L</NAME>
	<OUTCOME>0</OUTCOME>
	<OUTCOME>1</OUTCOME>
	<OUTCOME>2</OUTCOME>
	<PROPERTY>position = (5293,180)</PROPERTY>
</VARIABLE>
<VARIABLE TYPE="nature">
	<NAME>PDE3B</NAME>
	<OUTCOME>0</OUTCOME>
	<OUTCOME>1</OUTCOME>
	<OUTCOME>2</OUTCOME>
	<PROPERTY>position = (5360,180)</PROPERTY>
</VARIABLE>
<VARIABLE TYPE="nature">
	<NAME>MARK3</NAME>
	<OUTCOME>0</OUTCOME>
	<OUTCOME>1</OUTCOME>
	<OUTCOME>2</OUTCOME>
	<PROPERTY>position = (5427,180)</PROPERTY>
</VARIABLE>
<VARIABLE TYPE="nature">
	<NAME>GALNT10</NAME>
	<OUTCOME>0</OUTCOME>
	<OUTCOME>1</OUTCOME>
	<OUTCOME>2</OUTCOME>
	<PROPERTY>position = (5494,180)</PROPERTY>
</VARIABLE>
<VARIABLE TYPE="nature">
	<NAME>USP6NL</NAME>
	<OUTCOME>0</OUTCOME>
	<OUTCOME>1</OUTCOME>
	<OUTCOME>2</OUTCOME>
	<PROPERTY>position = (5561,180)</PROPERTY>
</VARIABLE>
<VARIABLE TYPE="nature">
	<NAME>CDC37L1</NAME>
	<OUTCOME>0</OUTCOME>
	<OUTCOME>1</OUTCOME>
	<OUTCOME>2</OUTCOME>
	<PROPERTY>position = (5628,180)</PROPERTY>
</VARIABLE>
<VARIABLE TYPE="nature">
	<NAME>MSH3</NAME>
	<OUTCOME>0</OUTCOME>
	<OUTCOME>1</OUTCOME>
	<OUTCOME>2</OUTCOME>
	<PROPERTY>position = (5695,180)</PROPERTY>
</VARIABLE>
<VARIABLE TYPE="nature">
	<NAME>NIPBL</NAME>
	<OUTCOME>0</OUTCOME>
	<OUTCOME>1</OUTCOME>
	<OUTCOME>2</OUTCOME>
	<PROPERTY>position = (5762,180)</PROPERTY>
</VARIABLE>
<VARIABLE TYPE="nature">
	<NAME>PPOX</NAME>
	<OUTCOME>0</OUTCOME>
	<OUTCOME>1</OUTCOME>
	<OUTCOME>2</OUTCOME>
	<PROPERTY>position = (5829,180)</PROPERTY>
</VARIABLE>
<VARIABLE TYPE="nature">
	<NAME>C18orf10</NAME>
	<OUTCOME>0</OUTCOME>
	<OUTCOME>1</OUTCOME>
	<OUTCOME>2</OUTCOME>
	<PROPERTY>position = (5896,180)</PROPERTY>
</VARIABLE>
<VARIABLE TYPE="nature">
	<NAME>NFIB</NAME>
	<OUTCOME>0</OUTCOME>
	<OUTCOME>1</OUTCOME>
	<OUTCOME>2</OUTCOME>
	<PROPERTY>position = (5963,180)</PROPERTY>
</VARIABLE>
<VARIABLE TYPE="nature">
	<NAME>ABHD5</NAME>
	<OUTCOME>0</OUTCOME>
	<OUTCOME>1</OUTCOME>
	<OUTCOME>2</OUTCOME>
	<PROPERTY>position = (6030,180)</PROPERTY>
</VARIABLE>
<VARIABLE TYPE="nature">
	<NAME>ICA1</NAME>
	<OUTCOME>0</OUTCOME>
	<OUTCOME>1</OUTCOME>
	<OUTCOME>2</OUTCOME>
	<PROPERTY>position = (6097,180)</PROPERTY>
</VARIABLE>
<VARIABLE TYPE="nature">
	<NAME>NDRG3</NAME>
	<OUTCOME>0</OUTCOME>
	<OUTCOME>1</OUTCOME>
	<OUTCOME>2</OUTCOME>
	<PROPERTY>position = (6164,180)</PROPERTY>
</VARIABLE>
<VARIABLE TYPE="nature">
	<NAME>C7orf44</NAME>
	<OUTCOME>0</OUTCOME>
	<OUTCOME>1</OUTCOME>
	<OUTCOME>2</OUTCOME>
	<PROPERTY>position = (6231,180)</PROPERTY>
</VARIABLE>
<VARIABLE TYPE="nature">
	<NAME>BUB3</NAME>
	<OUTCOME>0</OUTCOME>
	<OUTCOME>1</OUTCOME>
	<OUTCOME>2</OUTCOME>
	<PROPERTY>position = (6298,180)</PROPERTY>
</VARIABLE>
<VARIABLE TYPE="nature">
	<NAME>SMCHD1</NAME>
	<OUTCOME>0</OUTCOME>
	<OUTCOME>1</OUTCOME>
	<OUTCOME>2</OUTCOME>
	<PROPERTY>position = (6365,180)</PROPERTY>
</VARIABLE>
<VARIABLE TYPE="nature">
	<NAME>WWC1</NAME>
	<OUTCOME>0</OUTCOME>
	<OUTCOME>1</OUTCOME>
	<OUTCOME>2</OUTCOME>
	<PROPERTY>position = (6432,180)</PROPERTY>
</VARIABLE>
<VARIABLE TYPE="nature">
	<NAME>TCOF1</NAME>
	<OUTCOME>0</OUTCOME>
	<OUTCOME>1</OUTCOME>
	<OUTCOME>2</OUTCOME>
	<PROPERTY>position = (6499,180)</PROPERTY>
</VARIABLE>
<DEFINITION>
<FOR>Carcinoma</FOR>
<TABLE>
0.16666666666666666 0.8333333333333334 
</TABLE>
</DEFINITION>
<DEFINITION>
<FOR>ANGPTL4</FOR>
	<GIVEN>Carcinoma</GIVEN>
<TABLE>
0.3333333333333333 0.3333333333333333 0.3333333333333333 
0.14285714285714285 0.42857142857142855 0.42857142857142855 
</TABLE>
</DEFINITION>
<DEFINITION>
<FOR>EGLN3</FOR>
	<GIVEN>Carcinoma</GIVEN>
	<GIVEN>ANGPTL4</GIVEN>
<TABLE>
0.3333333333333333 0.3333333333333333 0.3333333333333333 
0.3333333333333333 0.3333333333333333 0.3333333333333333 
0.3333333333333333 0.3333333333333333 0.3333333333333333 
0.3333333333333333 0.3333333333333333 0.3333333333333333 
0.2 0.6 0.2 
0.2 0.2 0.6 
</TABLE>
</DEFINITION>
<DEFINITION>
<FOR>NETO2</FOR>
	<GIVEN>Carcinoma</GIVEN>
	<GIVEN>ANGPTL4</GIVEN>
<TABLE>
0.3333333333333333 0.3333333333333333 0.3333333333333333 
0.3333333333333333 0.3333333333333333 0.3333333333333333 
0.3333333333333333 0.3333333333333333 0.3333333333333333 
0.3333333333333333 0.3333333333333333 0.3333333333333333 
0.2 0.6 0.2 
0.2 0.2 0.6 
</TABLE>
</DEFINITION>
<DEFINITION>
<FOR>SP100</FOR>
	<GIVEN>Carcinoma</GIVEN>
	<GIVEN>ANGPTL4</GIVEN>
<TABLE>
0.3333333333333333 0.3333333333333333 0.3333333333333333 
0.3333333333333333 0.3333333333333333 0.3333333333333333 
0.3333333333333333 0.3333333333333333 0.3333333333333333 
0.3333333333333333 0.3333333333333333 0.3333333333333333 
0.2 0.6 0.2 
0.2 0.2 0.6 
</TABLE>
</DEFINITION>
<DEFINITION>
<FOR>FAM49A</FOR>
	<GIVEN>Carcinoma</GIVEN>
	<GIVEN>ANGPTL4</GIVEN>
<TABLE>
0.3333333333333333 0.3333333333333333 0.3333333333333333 
0.3333333333333333 0.3333333333333333 0.3333333333333333 
0.3333333333333333 0.3333333333333333 0.3333333333333333 
0.3333333333333333 0.3333333333333333 0.3333333333333333 
0.2 0.6 0.2 
0.2 0.2 0.6 
</TABLE>
</DEFINITION>
<DEFINITION>
<FOR>FYB</FOR>
	<GIVEN>Carcinoma</GIVEN>
	<GIVEN>ANGPTL4</GIVEN>
<TABLE>
0.3333333333333333 0.3333333333333333 0.3333333333333333 
0.3333333333333333 0.3333333333333333 0.3333333333333333 
0.3333333333333333 0.3333333333333333 0.3333333333333333 
0.3333333333333333 0.3333333333333333 0.3333333333333333 
0.2 0.6 0.2 
0.2 0.2 0.6 
</TABLE>
</DEFINITION>
<DEFINITION>
<FOR>IKZF1</FOR>
	<GIVEN>Carcinoma</GIVEN>
	<GIVEN>ANGPTL4</GIVEN>
<TABLE>
0.3333333333333333 0.3333333333333333 0.3333333333333333 
0.3333333333333333 0.3333333333333333 0.3333333333333333 
0.3333333333333333 0.3333333333333333 0.3333333333333333 
0.3333333333333333 0.3333333333333333 0.3333333333333333 
0.2 0.6 0.2 
0.2 0.2 0.6 
</TABLE>
</DEFINITION>
<DEFINITION>
<FOR>GM2A</FOR>
	<GIVEN>Carcinoma</GIVEN>
	<GIVEN>ANGPTL4</GIVEN>
<TABLE>
0.3333333333333333 0.3333333333333333 0.3333333333333333 
0.3333333333333333 0.3333333333333333 0.3333333333333333 
0.3333333333333333 0.3333333333333333 0.3333333333333333 
0.3333333333333333 0.3333333333333333 0.3333333333333333 
0.2 0.6 0.2 
0.2 0.2 0.6 
</TABLE>
</DEFINITION>
<DEFINITION>
<FOR>S100A10</FOR>
	<GIVEN>Carcinoma</GIVEN>
	<GIVEN>ANGPTL4</GIVEN>
<TABLE>
0.3333333333333333 0.3333333333333333 0.3333333333333333 
0.3333333333333333 0.3333333333333333 0.3333333333333333 
0.3333333333333333 0.3333333333333333 0.3333333333333333 
0.3333333333333333 0.3333333333333333 0.3333333333333333 
0.2 0.6 0.2 
0.2 0.2 0.6 
</TABLE>
</DEFINITION>
<DEFINITION>
<FOR>CHST12</FOR>
	<GIVEN>Carcinoma</GIVEN>
	<GIVEN>ANGPTL4</GIVEN>
<TABLE>
0.3333333333333333 0.3333333333333333 0.3333333333333333 
0.3333333333333333 0.3333333333333333 0.3333333333333333 
0.3333333333333333 0.3333333333333333 0.3333333333333333 
0.3333333333333333 0.3333333333333333 0.3333333333333333 
0.2 0.6 0.2 
0.2 0.2 0.6 
</TABLE>
</DEFINITION>
<DEFINITION>
<FOR>SP110</FOR>
	<GIVEN>Carcinoma</GIVEN>
	<GIVEN>ANGPTL4</GIVEN>
<TABLE>
0.3333333333333333 0.3333333333333333 0.3333333333333333 
0.3333333333333333 0.3333333333333333 0.3333333333333333 
0.3333333333333333 0.3333333333333333 0.3333333333333333 
0.3333333333333333 0.3333333333333333 0.3333333333333333 
0.2 0.6 0.2 
0.2 0.2 0.6 
</TABLE>
</DEFINITION>
<DEFINITION>
<FOR>LIPA</FOR>
	<GIVEN>Carcinoma</GIVEN>
	<GIVEN>ANGPTL4</GIVEN>
<TABLE>
0.3333333333333333 0.3333333333333333 0.3333333333333333 
0.3333333333333333 0.3333333333333333 0.3333333333333333 
0.3333333333333333 0.3333333333333333 0.3333333333333333 
0.3333333333333333 0.3333333333333333 0.3333333333333333 
0.2 0.6 0.2 
0.2 0.2 0.6 
</TABLE>
</DEFINITION>
<DEFINITION>
<FOR>PPP1R3C</FOR>
	<GIVEN>Carcinoma</GIVEN>
	<GIVEN>ANGPTL4</GIVEN>
<TABLE>
0.3333333333333333 0.3333333333333333 0.3333333333333333 
0.3333333333333333 0.3333333333333333 0.3333333333333333 
0.3333333333333333 0.3333333333333333 0.3333333333333333 
0.3333333333333333 0.3333333333333333 0.3333333333333333 
0.2 0.6 0.2 
0.2 0.2 0.6 
</TABLE>
</DEFINITION>
<DEFINITION>
<FOR>SERPINB1</FOR>
	<GIVEN>Carcinoma</GIVEN>
	<GIVEN>ANGPTL4</GIVEN>
<TABLE>
0.3333333333333333 0.3333333333333333 0.3333333333333333 
0.3333333333333333 0.3333333333333333 0.3333333333333333 
0.3333333333333333 0.3333333333333333 0.3333333333333333 
0.3333333333333333 0.3333333333333333 0.3333333333333333 
0.2 0.6 0.2 
0.2 0.2 0.6 
</TABLE>
</DEFINITION>
<DEFINITION>
<FOR>ITPR3</FOR>
	<GIVEN>Carcinoma</GIVEN>
	<GIVEN>ANGPTL4</GIVEN>
<TABLE>
0.3333333333333333 0.3333333333333333 0.3333333333333333 
0.3333333333333333 0.3333333333333333 0.3333333333333333 
0.3333333333333333 0.3333333333333333 0.3333333333333333 
0.3333333333333333 0.3333333333333333 0.3333333333333333 
0.2 0.6 0.2 
0.2 0.2 0.6 
</TABLE>
</DEFINITION>
<DEFINITION>
<FOR>UMOD</FOR>
	<GIVEN>Carcinoma</GIVEN>
	<GIVEN>ANGPTL4</GIVEN>
<TABLE>
0.3333333333333333 0.3333333333333333 0.3333333333333333 
0.3333333333333333 0.3333333333333333 0.3333333333333333 
0.3333333333333333 0.3333333333333333 0.3333333333333333 
0.3333333333333333 0.3333333333333333 0.3333333333333333 
0.6 0.2 0.2 
0.2 0.2 0.6 
</TABLE>
</DEFINITION>
<DEFINITION>
<FOR>SLC13A3</FOR>
	<GIVEN>Carcinoma</GIVEN>
	<GIVEN>ANGPTL4</GIVEN>
<TABLE>
0.3333333333333333 0.3333333333333333 0.3333333333333333 
0.3333333333333333 0.3333333333333333 0.3333333333333333 
0.3333333333333333 0.3333333333333333 0.3333333333333333 
0.3333333333333333 0.3333333333333333 0.3333333333333333 
0.6 0.2 0.2 
0.2 0.2 0.6 
</TABLE>
</DEFINITION>
<DEFINITION>
<FOR>SLC22A8</FOR>
	<GIVEN>Carcinoma</GIVEN>
	<GIVEN>ANGPTL4</GIVEN>
<TABLE>
0.3333333333333333 0.3333333333333333 0.3333333333333333 
0.3333333333333333 0.3333333333333333 0.3333333333333333 
0.3333333333333333 0.3333333333333333 0.3333333333333333 
0.3333333333333333 0.3333333333333333 0.3333333333333333 
0.6 0.2 0.2 
0.2 0.2 0.6 
</TABLE>
</DEFINITION>
<DEFINITION>
<FOR>PRODH2</FOR>
	<GIVEN>Carcinoma</GIVEN>
	<GIVEN>ANGPTL4</GIVEN>
<TABLE>
0.3333333333333333 0.3333333333333333 0.3333333333333333 
0.3333333333333333 0.3333333333333333 0.3333333333333333 
0.3333333333333333 0.3333333333333333 0.3333333333333333 
0.3333333333333333 0.3333333333333333 0.3333333333333333 
0.6 0.2 0.2 
0.2 0.2 0.6 
</TABLE>
</DEFINITION>
<DEFINITION>
<FOR>ACPP</FOR>
	<GIVEN>Carcinoma</GIVEN>
	<GIVEN>ANGPTL4</GIVEN>
<TABLE>
0.3333333333333333 0.3333333333333333 0.3333333333333333 
0.3333333333333333 0.3333333333333333 0.3333333333333333 
0.3333333333333333 0.3333333333333333 0.3333333333333333 
0.3333333333333333 0.3333333333333333 0.3333333333333333 
0.6 0.2 0.2 
0.2 0.2 0.6 
</TABLE>
</DEFINITION>
<DEFINITION>
<FOR>APOH</FOR>
	<GIVEN>Carcinoma</GIVEN>
	<GIVEN>ANGPTL4</GIVEN>
<TABLE>
0.3333333333333333 0.3333333333333333 0.3333333333333333 
0.3333333333333333 0.3333333333333333 0.3333333333333333 
0.3333333333333333 0.3333333333333333 0.3333333333333333 
0.3333333333333333 0.3333333333333333 0.3333333333333333 
0.6 0.2 0.2 
0.2 0.2 0.6 
</TABLE>
</DEFINITION>
<DEFINITION>
<FOR>ATP1A1</FOR>
	<GIVEN>Carcinoma</GIVEN>
	<GIVEN>ANGPTL4</GIVEN>
<TABLE>
0.3333333333333333 0.3333333333333333 0.3333333333333333 
0.3333333333333333 0.3333333333333333 0.3333333333333333 
0.3333333333333333 0.3333333333333333 0.3333333333333333 
0.3333333333333333 0.3333333333333333 0.3333333333333333 
0.6 0.2 0.2 
0.2 0.2 0.6 
</TABLE>
</DEFINITION>
<DEFINITION>
<FOR>PPM1H</FOR>
	<GIVEN>Carcinoma</GIVEN>
	<GIVEN>ANGPTL4</GIVEN>
<TABLE>
0.3333333333333333 0.3333333333333333 0.3333333333333333 
0.3333333333333333 0.3333333333333333 0.3333333333333333 
0.3333333333333333 0.3333333333333333 0.3333333333333333 
0.3333333333333333 0.3333333333333333 0.3333333333333333 
0.6 0.2 0.2 
0.2 0.2 0.6 
</TABLE>
</DEFINITION>
<DEFINITION>
<FOR>FABP1</FOR>
	<GIVEN>Carcinoma</GIVEN>
	<GIVEN>ANGPTL4</GIVEN>
<TABLE>
0.3333333333333333 0.3333333333333333 0.3333333333333333 
0.3333333333333333 0.3333333333333333 0.3333333333333333 
0.3333333333333333 0.3333333333333333 0.3333333333333333 
0.3333333333333333 0.3333333333333333 0.3333333333333333 
0.6 0.2 0.2 
0.2 0.2 0.6 
</TABLE>
</DEFINITION>
<DEFINITION>
<FOR>SELENBP1</FOR>
	<GIVEN>Carcinoma</GIVEN>
	<GIVEN>ANGPTL4</GIVEN>
<TABLE>
0.3333333333333333 0.3333333333333333 0.3333333333333333 
0.3333333333333333 0.3333333333333333 0.3333333333333333 
0.3333333333333333 0.3333333333333333 0.3333333333333333 
0.3333333333333333 0.3333333333333333 0.3333333333333333 
0.6 0.2 0.2 
0.2 0.2 0.6 
</TABLE>
</DEFINITION>
<DEFINITION>
<FOR>ACY1</FOR>
	<GIVEN>Carcinoma</GIVEN>
	<GIVEN>ANGPTL4</GIVEN>
<TABLE>
0.3333333333333333 0.3333333333333333 0.3333333333333333 
0.3333333333333333 0.3333333333333333 0.3333333333333333 
0.3333333333333333 0.3333333333333333 0.3333333333333333 
0.3333333333333333 0.3333333333333333 0.3333333333333333 
0.6 0.2 0.2 
0.2 0.2 0.6 
</TABLE>
</DEFINITION>
<DEFINITION>
<FOR>APOC3</FOR>
	<GIVEN>Carcinoma</GIVEN>
	<GIVEN>ANGPTL4</GIVEN>
<TABLE>
0.3333333333333333 0.3333333333333333 0.3333333333333333 
0.3333333333333333 0.3333333333333333 0.3333333333333333 
0.3333333333333333 0.3333333333333333 0.3333333333333333 
0.3333333333333333 0.3333333333333333 0.3333333333333333 
0.6 0.2 0.2 
0.2 0.2 0.6 
</TABLE>
</DEFINITION>
<DEFINITION>
<FOR>ANK2</FOR>
	<GIVEN>Carcinoma</GIVEN>
	<GIVEN>ANGPTL4</GIVEN>
<TABLE>
0.3333333333333333 0.3333333333333333 0.3333333333333333 
0.3333333333333333 0.3333333333333333 0.3333333333333333 
0.3333333333333333 0.3333333333333333 0.3333333333333333 
0.3333333333333333 0.3333333333333333 0.3333333333333333 
0.6 0.2 0.2 
0.2 0.2 0.6 
</TABLE>
</DEFINITION>
<DEFINITION>
<FOR>PNPLA3</FOR>
	<GIVEN>Carcinoma</GIVEN>
	<GIVEN>ANGPTL4</GIVEN>
<TABLE>
0.3333333333333333 0.3333333333333333 0.3333333333333333 
0.3333333333333333 0.3333333333333333 0.3333333333333333 
0.3333333333333333 0.3333333333333333 0.3333333333333333 
0.3333333333333333 0.3333333333333333 0.3333333333333333 
0.6 0.2 0.2 
0.2 0.2 0.6 
</TABLE>
</DEFINITION>
<DEFINITION>
<FOR>PCCA</FOR>
	<GIVEN>Carcinoma</GIVEN>
	<GIVEN>ANGPTL4</GIVEN>
<TABLE>
0.3333333333333333 0.3333333333333333 0.3333333333333333 
0.3333333333333333 0.3333333333333333 0.3333333333333333 
0.3333333333333333 0.3333333333333333 0.3333333333333333 
0.3333333333333333 0.3333333333333333 0.3333333333333333 
0.6 0.2 0.2 
0.2 0.2 0.6 
</TABLE>
</DEFINITION>
<DEFINITION>
<FOR>CHL1</FOR>
	<GIVEN>Carcinoma</GIVEN>
	<GIVEN>ANGPTL4</GIVEN>
<TABLE>
0.3333333333333333 0.3333333333333333 0.3333333333333333 
0.3333333333333333 0.3333333333333333 0.3333333333333333 
0.3333333333333333 0.3333333333333333 0.3333333333333333 
0.3333333333333333 0.3333333333333333 0.3333333333333333 
0.6 0.2 0.2 
0.2 0.2 0.6 
</TABLE>
</DEFINITION>
<DEFINITION>
<FOR>DNAJC12</FOR>
	<GIVEN>Carcinoma</GIVEN>
	<GIVEN>ANGPTL4</GIVEN>
<TABLE>
0.3333333333333333 0.3333333333333333 0.3333333333333333 
0.3333333333333333 0.3333333333333333 0.3333333333333333 
0.3333333333333333 0.3333333333333333 0.3333333333333333 
0.3333333333333333 0.3333333333333333 0.3333333333333333 
0.6 0.2 0.2 
0.2 0.2 0.6 
</TABLE>
</DEFINITION>
<DEFINITION>
<FOR>BRP44L</FOR>
	<GIVEN>Carcinoma</GIVEN>
	<GIVEN>ANGPTL4</GIVEN>
<TABLE>
0.3333333333333333 0.3333333333333333 0.3333333333333333 
0.3333333333333333 0.3333333333333333 0.3333333333333333 
0.3333333333333333 0.3333333333333333 0.3333333333333333 
0.3333333333333333 0.3333333333333333 0.3333333333333333 
0.6 0.2 0.2 
0.2 0.2 0.6 
</TABLE>
</DEFINITION>
<DEFINITION>
<FOR>FGF9</FOR>
	<GIVEN>Carcinoma</GIVEN>
	<GIVEN>ANGPTL4</GIVEN>
<TABLE>
0.3333333333333333 0.3333333333333333 0.3333333333333333 
0.3333333333333333 0.3333333333333333 0.3333333333333333 
0.3333333333333333 0.3333333333333333 0.3333333333333333 
0.3333333333333333 0.3333333333333333 0.3333333333333333 
0.6 0.2 0.2 
0.2 0.2 0.6 
</TABLE>
</DEFINITION>
<DEFINITION>
<FOR>C19orf28</FOR>
	<GIVEN>Carcinoma</GIVEN>
	<GIVEN>ANGPTL4</GIVEN>
<TABLE>
0.3333333333333333 0.3333333333333333 0.3333333333333333 
0.3333333333333333 0.3333333333333333 0.3333333333333333 
0.3333333333333333 0.3333333333333333 0.3333333333333333 
0.3333333333333333 0.3333333333333333 0.3333333333333333 
0.6 0.2 0.2 
0.2 0.2 0.6 
</TABLE>
</DEFINITION>
<DEFINITION>
<FOR>USP2</FOR>
	<GIVEN>Carcinoma</GIVEN>
	<GIVEN>ANGPTL4</GIVEN>
<TABLE>
0.3333333333333333 0.3333333333333333 0.3333333333333333 
0.3333333333333333 0.3333333333333333 0.3333333333333333 
0.3333333333333333 0.3333333333333333 0.3333333333333333 
0.3333333333333333 0.3333333333333333 0.3333333333333333 
0.6 0.2 0.2 
0.2 0.2 0.6 
</TABLE>
</DEFINITION>
<DEFINITION>
<FOR>PPP1R1A</FOR>
	<GIVEN>Carcinoma</GIVEN>
	<GIVEN>ANGPTL4</GIVEN>
<TABLE>
0.3333333333333333 0.3333333333333333 0.3333333333333333 
0.3333333333333333 0.3333333333333333 0.3333333333333333 
0.3333333333333333 0.3333333333333333 0.3333333333333333 
0.3333333333333333 0.3333333333333333 0.3333333333333333 
0.6 0.2 0.2 
0.2 0.2 0.6 
</TABLE>
</DEFINITION>
<DEFINITION>
<FOR>FERMT1</FOR>
	<GIVEN>Carcinoma</GIVEN>
	<GIVEN>ANGPTL4</GIVEN>
<TABLE>
0.3333333333333333 0.3333333333333333 0.3333333333333333 
0.3333333333333333 0.3333333333333333 0.3333333333333333 
0.3333333333333333 0.3333333333333333 0.3333333333333333 
0.3333333333333333 0.3333333333333333 0.3333333333333333 
0.6 0.2 0.2 
0.2 0.2 0.6 
</TABLE>
</DEFINITION>
<DEFINITION>
<FOR>PLCL1</FOR>
	<GIVEN>Carcinoma</GIVEN>
	<GIVEN>ANGPTL4</GIVEN>
<TABLE>
0.3333333333333333 0.3333333333333333 0.3333333333333333 
0.3333333333333333 0.3333333333333333 0.3333333333333333 
0.3333333333333333 0.3333333333333333 0.3333333333333333 
0.3333333333333333 0.3333333333333333 0.3333333333333333 
0.6 0.2 0.2 
0.2 0.2 0.6 
</TABLE>
</DEFINITION>
<DEFINITION>
<FOR>QPRT</FOR>
	<GIVEN>Carcinoma</GIVEN>
	<GIVEN>ANGPTL4</GIVEN>
<TABLE>
0.3333333333333333 0.3333333333333333 0.3333333333333333 
0.3333333333333333 0.3333333333333333 0.3333333333333333 
0.3333333333333333 0.3333333333333333 0.3333333333333333 
0.3333333333333333 0.3333333333333333 0.3333333333333333 
0.6 0.2 0.2 
0.2 0.2 0.6 
</TABLE>
</DEFINITION>
<DEFINITION>
<FOR>TMPRSS2</FOR>
	<GIVEN>Carcinoma</GIVEN>
	<GIVEN>ANGPTL4</GIVEN>
<TABLE>
0.3333333333333333 0.3333333333333333 0.3333333333333333 
0.3333333333333333 0.3333333333333333 0.3333333333333333 
0.3333333333333333 0.3333333333333333 0.3333333333333333 
0.3333333333333333 0.3333333333333333 0.3333333333333333 
0.6 0.2 0.2 
0.2 0.2 0.6 
</TABLE>
</DEFINITION>
<DEFINITION>
<FOR>BDH2</FOR>
	<GIVEN>Carcinoma</GIVEN>
	<GIVEN>ANGPTL4</GIVEN>
<TABLE>
0.3333333333333333 0.3333333333333333 0.3333333333333333 
0.3333333333333333 0.3333333333333333 0.3333333333333333 
0.3333333333333333 0.3333333333333333 0.3333333333333333 
0.3333333333333333 0.3333333333333333 0.3333333333333333 
0.6 0.2 0.2 
0.2 0.2 0.6 
</TABLE>
</DEFINITION>
<DEFINITION>
<FOR>AQP2</FOR>
	<GIVEN>Carcinoma</GIVEN>
	<GIVEN>ANGPTL4</GIVEN>
<TABLE>
0.3333333333333333 0.3333333333333333 0.3333333333333333 
0.3333333333333333 0.3333333333333333 0.3333333333333333 
0.3333333333333333 0.3333333333333333 0.3333333333333333 
0.3333333333333333 0.3333333333333333 0.3333333333333333 
0.6 0.2 0.2 
0.2 0.2 0.6 
</TABLE>
</DEFINITION>
<DEFINITION>
<FOR>ERBB4</FOR>
	<GIVEN>Carcinoma</GIVEN>
	<GIVEN>ANGPTL4</GIVEN>
<TABLE>
0.3333333333333333 0.3333333333333333 0.3333333333333333 
0.3333333333333333 0.3333333333333333 0.3333333333333333 
0.3333333333333333 0.3333333333333333 0.3333333333333333 
0.3333333333333333 0.3333333333333333 0.3333333333333333 
0.6 0.2 0.2 
0.2 0.2 0.6 
</TABLE>
</DEFINITION>
<DEFINITION>
<FOR>PLG</FOR>
	<GIVEN>Carcinoma</GIVEN>
	<GIVEN>ANGPTL4</GIVEN>
<TABLE>
0.3333333333333333 0.3333333333333333 0.3333333333333333 
0.3333333333333333 0.3333333333333333 0.3333333333333333 
0.3333333333333333 0.3333333333333333 0.3333333333333333 
0.3333333333333333 0.3333333333333333 0.3333333333333333 
0.6 0.2 0.2 
0.2 0.2 0.6 
</TABLE>
</DEFINITION>
<DEFINITION>
<FOR>SLC12A3</FOR>
	<GIVEN>Carcinoma</GIVEN>
	<GIVEN>ANGPTL4</GIVEN>
<TABLE>
0.3333333333333333 0.3333333333333333 0.3333333333333333 
0.3333333333333333 0.3333333333333333 0.3333333333333333 
0.3333333333333333 0.3333333333333333 0.3333333333333333 
0.3333333333333333 0.3333333333333333 0.3333333333333333 
0.6 0.2 0.2 
0.2 0.2 0.6 
</TABLE>
</DEFINITION>
<DEFINITION>
<FOR>GATM</FOR>
	<GIVEN>Carcinoma</GIVEN>
	<GIVEN>ANGPTL4</GIVEN>
<TABLE>
0.3333333333333333 0.3333333333333333 0.3333333333333333 
0.3333333333333333 0.3333333333333333 0.3333333333333333 
0.3333333333333333 0.3333333333333333 0.3333333333333333 
0.3333333333333333 0.3333333333333333 0.3333333333333333 
0.6 0.2 0.2 
0.2 0.2 0.6 
</TABLE>
</DEFINITION>
<DEFINITION>
<FOR>TOX3</FOR>
	<GIVEN>Carcinoma</GIVEN>
	<GIVEN>ANGPTL4</GIVEN>
<TABLE>
0.3333333333333333 0.3333333333333333 0.3333333333333333 
0.3333333333333333 0.3333333333333333 0.3333333333333333 
0.3333333333333333 0.3333333333333333 0.3333333333333333 
0.3333333333333333 0.3333333333333333 0.3333333333333333 
0.6 0.2 0.2 
0.2 0.2 0.6 
</TABLE>
</DEFINITION>
<DEFINITION>
<FOR>FTCD</FOR>
	<GIVEN>Carcinoma</GIVEN>
	<GIVEN>ANGPTL4</GIVEN>
<TABLE>
0.3333333333333333 0.3333333333333333 0.3333333333333333 
0.3333333333333333 0.3333333333333333 0.3333333333333333 
0.3333333333333333 0.3333333333333333 0.3333333333333333 
0.3333333333333333 0.3333333333333333 0.3333333333333333 
0.6 0.2 0.2 
0.2 0.2 0.6 
</TABLE>
</DEFINITION>
<DEFINITION>
<FOR>ATXN7L1</FOR>
	<GIVEN>Carcinoma</GIVEN>
	<GIVEN>ANGPTL4</GIVEN>
<TABLE>
0.3333333333333333 0.3333333333333333 0.3333333333333333 
0.3333333333333333 0.3333333333333333 0.3333333333333333 
0.3333333333333333 0.3333333333333333 0.3333333333333333 
0.3333333333333333 0.3333333333333333 0.3333333333333333 
0.6 0.2 0.2 
0.2 0.2 0.6 
</TABLE>
</DEFINITION>
<DEFINITION>
<FOR>KIAA0907</FOR>
	<GIVEN>Carcinoma</GIVEN>
	<GIVEN>ANGPTL4</GIVEN>
<TABLE>
0.3333333333333333 0.3333333333333333 0.3333333333333333 
0.3333333333333333 0.3333333333333333 0.3333333333333333 
0.3333333333333333 0.3333333333333333 0.3333333333333333 
0.3333333333333333 0.3333333333333333 0.3333333333333333 
0.2 0.2 0.6 
0.2 0.6 0.2 
</TABLE>
</DEFINITION>
<DEFINITION>
<FOR>NF1</FOR>
	<GIVEN>Carcinoma</GIVEN>
	<GIVEN>ANGPTL4</GIVEN>
<TABLE>
0.3333333333333333 0.3333333333333333 0.3333333333333333 
0.3333333333333333 0.3333333333333333 0.3333333333333333 
0.3333333333333333 0.3333333333333333 0.3333333333333333 
0.3333333333333333 0.3333333333333333 0.3333333333333333 
0.2 0.2 0.6 
0.2 0.6 0.2 
</TABLE>
</DEFINITION>
<DEFINITION>
<FOR>HOXA7</FOR>
	<GIVEN>Carcinoma</GIVEN>
	<GIVEN>ANGPTL4</GIVEN>
<TABLE>
0.3333333333333333 0.3333333333333333 0.3333333333333333 
0.3333333333333333 0.3333333333333333 0.3333333333333333 
0.3333333333333333 0.3333333333333333 0.3333333333333333 
0.3333333333333333 0.3333333333333333 0.3333333333333333 
0.2 0.2 0.6 
0.2 0.6 0.2 
</TABLE>
</DEFINITION>
<DEFINITION>
<FOR>HNMT</FOR>
	<GIVEN>Carcinoma</GIVEN>
	<GIVEN>ANGPTL4</GIVEN>
<TABLE>
0.3333333333333333 0.3333333333333333 0.3333333333333333 
0.3333333333333333 0.3333333333333333 0.3333333333333333 
0.3333333333333333 0.3333333333333333 0.3333333333333333 
0.3333333333333333 0.3333333333333333 0.3333333333333333 
0.2 0.2 0.6 
0.2 0.6 0.2 
</TABLE>
</DEFINITION>
<DEFINITION>
<FOR>RBPJ</FOR>
	<GIVEN>Carcinoma</GIVEN>
	<GIVEN>ANGPTL4</GIVEN>
<TABLE>
0.3333333333333333 0.3333333333333333 0.3333333333333333 
0.3333333333333333 0.3333333333333333 0.3333333333333333 
0.3333333333333333 0.3333333333333333 0.3333333333333333 
0.3333333333333333 0.3333333333333333 0.3333333333333333 
0.2 0.2 0.6 
0.2 0.6 0.2 
</TABLE>
</DEFINITION>
<DEFINITION>
<FOR>MDFIC</FOR>
	<GIVEN>Carcinoma</GIVEN>
	<GIVEN>ANGPTL4</GIVEN>
<TABLE>
0.3333333333333333 0.3333333333333333 0.3333333333333333 
0.3333333333333333 0.3333333333333333 0.3333333333333333 
0.3333333333333333 0.3333333333333333 0.3333333333333333 
0.3333333333333333 0.3333333333333333 0.3333333333333333 
0.2 0.2 0.6 
0.2 0.6 0.2 
</TABLE>
</DEFINITION>
<DEFINITION>
<FOR>RFX2</FOR>
	<GIVEN>Carcinoma</GIVEN>
	<GIVEN>ANGPTL4</GIVEN>
<TABLE>
0.3333333333333333 0.3333333333333333 0.3333333333333333 
0.3333333333333333 0.3333333333333333 0.3333333333333333 
0.3333333333333333 0.3333333333333333 0.3333333333333333 
0.3333333333333333 0.3333333333333333 0.3333333333333333 
0.2 0.2 0.6 
0.2 0.6 0.2 
</TABLE>
</DEFINITION>
<DEFINITION>
<FOR>PPIA</FOR>
	<GIVEN>Carcinoma</GIVEN>
	<GIVEN>ANGPTL4</GIVEN>
<TABLE>
0.3333333333333333 0.3333333333333333 0.3333333333333333 
0.3333333333333333 0.3333333333333333 0.3333333333333333 
0.3333333333333333 0.3333333333333333 0.3333333333333333 
0.3333333333333333 0.3333333333333333 0.3333333333333333 
0.2 0.2 0.6 
0.2 0.6 0.2 
</TABLE>
</DEFINITION>
<DEFINITION>
<FOR>IGHG1</FOR>
	<GIVEN>Carcinoma</GIVEN>
	<GIVEN>ANGPTL4</GIVEN>
<TABLE>
0.3333333333333333 0.3333333333333333 0.3333333333333333 
0.3333333333333333 0.3333333333333333 0.3333333333333333 
0.3333333333333333 0.3333333333333333 0.3333333333333333 
0.3333333333333333 0.3333333333333333 0.3333333333333333 
0.2 0.2 0.6 
0.2 0.6 0.2 
</TABLE>
</DEFINITION>
<DEFINITION>
<FOR>SOX1</FOR>
	<GIVEN>Carcinoma</GIVEN>
	<GIVEN>ANGPTL4</GIVEN>
<TABLE>
0.3333333333333333 0.3333333333333333 0.3333333333333333 
0.3333333333333333 0.3333333333333333 0.3333333333333333 
0.3333333333333333 0.3333333333333333 0.3333333333333333 
0.3333333333333333 0.3333333333333333 0.3333333333333333 
0.2 0.2 0.6 
0.2 0.6 0.2 
</TABLE>
</DEFINITION>
<DEFINITION>
<FOR>PDLIM3</FOR>
	<GIVEN>Carcinoma</GIVEN>
	<GIVEN>ANGPTL4</GIVEN>
<TABLE>
0.3333333333333333 0.3333333333333333 0.3333333333333333 
0.3333333333333333 0.3333333333333333 0.3333333333333333 
0.3333333333333333 0.3333333333333333 0.3333333333333333 
0.3333333333333333 0.3333333333333333 0.3333333333333333 
0.2 0.2 0.6 
0.2 0.6 0.2 
</TABLE>
</DEFINITION>
<DEFINITION>
<FOR>GMEB1</FOR>
	<GIVEN>Carcinoma</GIVEN>
	<GIVEN>ANGPTL4</GIVEN>
<TABLE>
0.3333333333333333 0.3333333333333333 0.3333333333333333 
0.3333333333333333 0.3333333333333333 0.3333333333333333 
0.3333333333333333 0.3333333333333333 0.3333333333333333 
0.3333333333333333 0.3333333333333333 0.3333333333333333 
0.2 0.2 0.6 
0.2 0.6 0.2 
</TABLE>
</DEFINITION>
<DEFINITION>
<FOR>CNOT2</FOR>
	<GIVEN>Carcinoma</GIVEN>
	<GIVEN>ANGPTL4</GIVEN>
<TABLE>
0.3333333333333333 0.3333333333333333 0.3333333333333333 
0.3333333333333333 0.3333333333333333 0.3333333333333333 
0.3333333333333333 0.3333333333333333 0.3333333333333333 
0.3333333333333333 0.3333333333333333 0.3333333333333333 
0.2 0.2 0.6 
0.2 0.6 0.2 
</TABLE>
</DEFINITION>
<DEFINITION>
<FOR>DAB1</FOR>
	<GIVEN>Carcinoma</GIVEN>
	<GIVEN>ANGPTL4</GIVEN>
<TABLE>
0.3333333333333333 0.3333333333333333 0.3333333333333333 
0.3333333333333333 0.3333333333333333 0.3333333333333333 
0.3333333333333333 0.3333333333333333 0.3333333333333333 
0.3333333333333333 0.3333333333333333 0.3333333333333333 
0.2 0.2 0.6 
0.2 0.6 0.2 
</TABLE>
</DEFINITION>
<DEFINITION>
<FOR>ITGB2</FOR>
	<GIVEN>Carcinoma</GIVEN>
<TABLE>
0.3333333333333333 0.3333333333333333 0.3333333333333333 
0.14285714285714285 0.7142857142857143 0.14285714285714285 
</TABLE>
</DEFINITION>
<DEFINITION>
<FOR>CNPY3</FOR>
	<GIVEN>Carcinoma</GIVEN>
	<GIVEN>ANGPTL4</GIVEN>
<TABLE>
0.3333333333333333 0.3333333333333333 0.3333333333333333 
0.3333333333333333 0.3333333333333333 0.3333333333333333 
0.3333333333333333 0.3333333333333333 0.3333333333333333 
0.3333333333333333 0.3333333333333333 0.3333333333333333 
0.2 0.2 0.6 
0.6 0.2 0.2 
</TABLE>
</DEFINITION>
<DEFINITION>
<FOR>PHLDA2</FOR>
	<GIVEN>Carcinoma</GIVEN>
	<GIVEN>ANGPTL4</GIVEN>
<TABLE>
0.3333333333333333 0.3333333333333333 0.3333333333333333 
0.3333333333333333 0.3333333333333333 0.3333333333333333 
0.3333333333333333 0.3333333333333333 0.3333333333333333 
0.3333333333333333 0.3333333333333333 0.3333333333333333 
0.2 0.2 0.6 
0.6 0.2 0.2 
</TABLE>
</DEFINITION>
<DEFINITION>
<FOR>TUBB1</FOR>
	<GIVEN>Carcinoma</GIVEN>
	<GIVEN>ANGPTL4</GIVEN>
<TABLE>
0.3333333333333333 0.3333333333333333 0.3333333333333333 
0.3333333333333333 0.3333333333333333 0.3333333333333333 
0.3333333333333333 0.3333333333333333 0.3333333333333333 
0.3333333333333333 0.3333333333333333 0.3333333333333333 
0.2 0.2 0.6 
0.6 0.2 0.2 
</TABLE>
</DEFINITION>
<DEFINITION>
<FOR>CCNK</FOR>
	<GIVEN>Carcinoma</GIVEN>
	<GIVEN>ANGPTL4</GIVEN>
<TABLE>
0.3333333333333333 0.3333333333333333 0.3333333333333333 
0.3333333333333333 0.3333333333333333 0.3333333333333333 
0.3333333333333333 0.3333333333333333 0.3333333333333333 
0.3333333333333333 0.3333333333333333 0.3333333333333333 
0.2 0.2 0.6 
0.6 0.2 0.2 
</TABLE>
</DEFINITION>
<DEFINITION>
<FOR>FDFT1</FOR>
	<GIVEN>Carcinoma</GIVEN>
	<GIVEN>ANGPTL4</GIVEN>
<TABLE>
0.3333333333333333 0.3333333333333333 0.3333333333333333 
0.3333333333333333 0.3333333333333333 0.3333333333333333 
0.3333333333333333 0.3333333333333333 0.3333333333333333 
0.3333333333333333 0.3333333333333333 0.3333333333333333 
0.2 0.2 0.6 
0.6 0.2 0.2 
</TABLE>
</DEFINITION>
<DEFINITION>
<FOR>CDKL3</FOR>
	<GIVEN>Carcinoma</GIVEN>
	<GIVEN>ANGPTL4</GIVEN>
<TABLE>
0.3333333333333333 0.3333333333333333 0.3333333333333333 
0.3333333333333333 0.3333333333333333 0.3333333333333333 
0.3333333333333333 0.3333333333333333 0.3333333333333333 
0.3333333333333333 0.3333333333333333 0.3333333333333333 
0.2 0.2 0.6 
0.6 0.2 0.2 
</TABLE>
</DEFINITION>
<DEFINITION>
<FOR>BBX</FOR>
	<GIVEN>Carcinoma</GIVEN>
	<GIVEN>ANGPTL4</GIVEN>
<TABLE>
0.3333333333333333 0.3333333333333333 0.3333333333333333 
0.3333333333333333 0.3333333333333333 0.3333333333333333 
0.3333333333333333 0.3333333333333333 0.3333333333333333 
0.3333333333333333 0.3333333333333333 0.3333333333333333 
0.2 0.2 0.6 
0.6 0.2 0.2 
</TABLE>
</DEFINITION>
<DEFINITION>
<FOR>UBE3A</FOR>
	<GIVEN>Carcinoma</GIVEN>
	<GIVEN>ANGPTL4</GIVEN>
<TABLE>
0.3333333333333333 0.3333333333333333 0.3333333333333333 
0.3333333333333333 0.3333333333333333 0.3333333333333333 
0.3333333333333333 0.3333333333333333 0.3333333333333333 
0.3333333333333333 0.3333333333333333 0.3333333333333333 
0.2 0.2 0.6 
0.6 0.2 0.2 
</TABLE>
</DEFINITION>
<DEFINITION>
<FOR>ITGB1BP1</FOR>
	<GIVEN>Carcinoma</GIVEN>
	<GIVEN>ANGPTL4</GIVEN>
<TABLE>
0.3333333333333333 0.3333333333333333 0.3333333333333333 
0.3333333333333333 0.3333333333333333 0.3333333333333333 
0.3333333333333333 0.3333333333333333 0.3333333333333333 
0.3333333333333333 0.3333333333333333 0.3333333333333333 
0.2 0.2 0.6 
0.6 0.2 0.2 
</TABLE>
</DEFINITION>
<DEFINITION>
<FOR>CDH11</FOR>
	<GIVEN>Carcinoma</GIVEN>
	<GIVEN>ANGPTL4</GIVEN>
<TABLE>
0.3333333333333333 0.3333333333333333 0.3333333333333333 
0.3333333333333333 0.3333333333333333 0.3333333333333333 
0.3333333333333333 0.3333333333333333 0.3333333333333333 
0.3333333333333333 0.3333333333333333 0.3333333333333333 
0.2 0.2 0.6 
0.6 0.2 0.2 
</TABLE>
</DEFINITION>
<DEFINITION>
<FOR>NSFL1C</FOR>
	<GIVEN>Carcinoma</GIVEN>
	<GIVEN>ANGPTL4</GIVEN>
<TABLE>
0.3333333333333333 0.3333333333333333 0.3333333333333333 
0.3333333333333333 0.3333333333333333 0.3333333333333333 
0.3333333333333333 0.3333333333333333 0.3333333333333333 
0.3333333333333333 0.3333333333333333 0.3333333333333333 
0.2 0.2 0.6 
0.6 0.2 0.2 
</TABLE>
</DEFINITION>
<DEFINITION>
<FOR>ZNF141</FOR>
	<GIVEN>Carcinoma</GIVEN>
	<GIVEN>ANGPTL4</GIVEN>
<TABLE>
0.3333333333333333 0.3333333333333333 0.3333333333333333 
0.3333333333333333 0.3333333333333333 0.3333333333333333 
0.3333333333333333 0.3333333333333333 0.3333333333333333 
0.3333333333333333 0.3333333333333333 0.3333333333333333 
0.2 0.2 0.6 
0.6 0.2 0.2 
</TABLE>
</DEFINITION>
<DEFINITION>
<FOR>PADI1</FOR>
	<GIVEN>Carcinoma</GIVEN>
	<GIVEN>ANGPTL4</GIVEN>
<TABLE>
0.3333333333333333 0.3333333333333333 0.3333333333333333 
0.3333333333333333 0.3333333333333333 0.3333333333333333 
0.3333333333333333 0.3333333333333333 0.3333333333333333 
0.3333333333333333 0.3333333333333333 0.3333333333333333 
0.2 0.2 0.6 
0.6 0.2 0.2 
</TABLE>
</DEFINITION>
<DEFINITION>
<FOR>LTBP4</FOR>
	<GIVEN>Carcinoma</GIVEN>
	<GIVEN>ANGPTL4</GIVEN>
<TABLE>
0.3333333333333333 0.3333333333333333 0.3333333333333333 
0.3333333333333333 0.3333333333333333 0.3333333333333333 
0.3333333333333333 0.3333333333333333 0.3333333333333333 
0.3333333333333333 0.3333333333333333 0.3333333333333333 
0.2 0.2 0.6 
0.6 0.2 0.2 
</TABLE>
</DEFINITION>
<DEFINITION>
<FOR>TOR3A</FOR>
	<GIVEN>Carcinoma</GIVEN>
	<GIVEN>ANGPTL4</GIVEN>
<TABLE>
0.3333333333333333 0.3333333333333333 0.3333333333333333 
0.3333333333333333 0.3333333333333333 0.3333333333333333 
0.3333333333333333 0.3333333333333333 0.3333333333333333 
0.3333333333333333 0.3333333333333333 0.3333333333333333 
0.2 0.2 0.6 
0.6 0.2 0.2 
</TABLE>
</DEFINITION>
<DEFINITION>
<FOR>UBFD1</FOR>
	<GIVEN>Carcinoma</GIVEN>
	<GIVEN>ANGPTL4</GIVEN>
<TABLE>
0.3333333333333333 0.3333333333333333 0.3333333333333333 
0.3333333333333333 0.3333333333333333 0.3333333333333333 
0.3333333333333333 0.3333333333333333 0.3333333333333333 
0.3333333333333333 0.3333333333333333 0.3333333333333333 
0.2 0.2 0.6 
0.6 0.2 0.2 
</TABLE>
</DEFINITION>
<DEFINITION>
<FOR>TAF6L</FOR>
	<GIVEN>Carcinoma</GIVEN>
	<GIVEN>ANGPTL4</GIVEN>
<TABLE>
0.3333333333333333 0.3333333333333333 0.3333333333333333 
0.3333333333333333 0.3333333333333333 0.3333333333333333 
0.3333333333333333 0.3333333333333333 0.3333333333333333 
0.3333333333333333 0.3333333333333333 0.3333333333333333 
0.2 0.2 0.6 
0.6 0.2 0.2 
</TABLE>
</DEFINITION>
<DEFINITION>
<FOR>PDE3B</FOR>
	<GIVEN>Carcinoma</GIVEN>
	<GIVEN>ANGPTL4</GIVEN>
<TABLE>
0.3333333333333333 0.3333333333333333 0.3333333333333333 
0.3333333333333333 0.3333333333333333 0.3333333333333333 
0.3333333333333333 0.3333333333333333 0.3333333333333333 
0.3333333333333333 0.3333333333333333 0.3333333333333333 
0.2 0.2 0.6 
0.6 0.2 0.2 
</TABLE>
</DEFINITION>
<DEFINITION>
<FOR>MARK3</FOR>
	<GIVEN>Carcinoma</GIVEN>
	<GIVEN>ANGPTL4</GIVEN>
<TABLE>
0.3333333333333333 0.3333333333333333 0.3333333333333333 
0.3333333333333333 0.3333333333333333 0.3333333333333333 
0.3333333333333333 0.3333333333333333 0.3333333333333333 
0.3333333333333333 0.3333333333333333 0.3333333333333333 
0.2 0.2 0.6 
0.6 0.2 0.2 
</TABLE>
</DEFINITION>
<DEFINITION>
<FOR>GALNT10</FOR>
	<GIVEN>Carcinoma</GIVEN>
	<GIVEN>ANGPTL4</GIVEN>
<TABLE>
0.3333333333333333 0.3333333333333333 0.3333333333333333 
0.3333333333333333 0.3333333333333333 0.3333333333333333 
0.3333333333333333 0.3333333333333333 0.3333333333333333 
0.3333333333333333 0.3333333333333333 0.3333333333333333 
0.2 0.2 0.6 
0.6 0.2 0.2 
</TABLE>
</DEFINITION>
<DEFINITION>
<FOR>USP6NL</FOR>
	<GIVEN>Carcinoma</GIVEN>
	<GIVEN>ANGPTL4</GIVEN>
<TABLE>
0.3333333333333333 0.3333333333333333 0.3333333333333333 
0.3333333333333333 0.3333333333333333 0.3333333333333333 
0.3333333333333333 0.3333333333333333 0.3333333333333333 
0.3333333333333333 0.3333333333333333 0.3333333333333333 
0.2 0.2 0.6 
0.6 0.2 0.2 
</TABLE>
</DEFINITION>
<DEFINITION>
<FOR>CDC37L1</FOR>
	<GIVEN>Carcinoma</GIVEN>
	<GIVEN>ANGPTL4</GIVEN>
<TABLE>
0.3333333333333333 0.3333333333333333 0.3333333333333333 
0.3333333333333333 0.3333333333333333 0.3333333333333333 
0.3333333333333333 0.3333333333333333 0.3333333333333333 
0.3333333333333333 0.3333333333333333 0.3333333333333333 
0.2 0.2 0.6 
0.6 0.2 0.2 
</TABLE>
</DEFINITION>
<DEFINITION>
<FOR>MSH3</FOR>
	<GIVEN>Carcinoma</GIVEN>
	<GIVEN>ANGPTL4</GIVEN>
<TABLE>
0.3333333333333333 0.3333333333333333 0.3333333333333333 
0.3333333333333333 0.3333333333333333 0.3333333333333333 
0.3333333333333333 0.3333333333333333 0.3333333333333333 
0.3333333333333333 0.3333333333333333 0.3333333333333333 
0.2 0.2 0.6 
0.6 0.2 0.2 
</TABLE>
</DEFINITION>
<DEFINITION>
<FOR>NIPBL</FOR>
	<GIVEN>Carcinoma</GIVEN>
	<GIVEN>ANGPTL4</GIVEN>
<TABLE>
0.3333333333333333 0.3333333333333333 0.3333333333333333 
0.3333333333333333 0.3333333333333333 0.3333333333333333 
0.3333333333333333 0.3333333333333333 0.3333333333333333 
0.3333333333333333 0.3333333333333333 0.3333333333333333 
0.2 0.2 0.6 
0.6 0.2 0.2 
</TABLE>
</DEFINITION>
<DEFINITION>
<FOR>PPOX</FOR>
	<GIVEN>Carcinoma</GIVEN>
	<GIVEN>ANGPTL4</GIVEN>
<TABLE>
0.3333333333333333 0.3333333333333333 0.3333333333333333 
0.3333333333333333 0.3333333333333333 0.3333333333333333 
0.3333333333333333 0.3333333333333333 0.3333333333333333 
0.3333333333333333 0.3333333333333333 0.3333333333333333 
0.2 0.2 0.6 
0.6 0.2 0.2 
</TABLE>
</DEFINITION>
<DEFINITION>
<FOR>C18orf10</FOR>
	<GIVEN>Carcinoma</GIVEN>
	<GIVEN>ANGPTL4</GIVEN>
<TABLE>
0.3333333333333333 0.3333333333333333 0.3333333333333333 
0.3333333333333333 0.3333333333333333 0.3333333333333333 
0.3333333333333333 0.3333333333333333 0.3333333333333333 
0.3333333333333333 0.3333333333333333 0.3333333333333333 
0.2 0.2 0.6 
0.6 0.2 0.2 
</TABLE>
</DEFINITION>
<DEFINITION>
<FOR>NFIB</FOR>
	<GIVEN>Carcinoma</GIVEN>
	<GIVEN>ANGPTL4</GIVEN>
<TABLE>
0.3333333333333333 0.3333333333333333 0.3333333333333333 
0.3333333333333333 0.3333333333333333 0.3333333333333333 
0.3333333333333333 0.3333333333333333 0.3333333333333333 
0.3333333333333333 0.3333333333333333 0.3333333333333333 
0.2 0.2 0.6 
0.6 0.2 0.2 
</TABLE>
</DEFINITION>
<DEFINITION>
<FOR>ABHD5</FOR>
	<GIVEN>Carcinoma</GIVEN>
	<GIVEN>ANGPTL4</GIVEN>
<TABLE>
0.3333333333333333 0.3333333333333333 0.3333333333333333 
0.3333333333333333 0.3333333333333333 0.3333333333333333 
0.3333333333333333 0.3333333333333333 0.3333333333333333 
0.3333333333333333 0.3333333333333333 0.3333333333333333 
0.2 0.2 0.6 
0.6 0.2 0.2 
</TABLE>
</DEFINITION>
<DEFINITION>
<FOR>ICA1</FOR>
	<GIVEN>Carcinoma</GIVEN>
	<GIVEN>ANGPTL4</GIVEN>
<TABLE>
0.3333333333333333 0.3333333333333333 0.3333333333333333 
0.3333333333333333 0.3333333333333333 0.3333333333333333 
0.3333333333333333 0.3333333333333333 0.3333333333333333 
0.3333333333333333 0.3333333333333333 0.3333333333333333 
0.2 0.2 0.6 
0.6 0.2 0.2 
</TABLE>
</DEFINITION>
<DEFINITION>
<FOR>NDRG3</FOR>
	<GIVEN>Carcinoma</GIVEN>
	<GIVEN>ANGPTL4</GIVEN>
<TABLE>
0.3333333333333333 0.3333333333333333 0.3333333333333333 
0.3333333333333333 0.3333333333333333 0.3333333333333333 
0.3333333333333333 0.3333333333333333 0.3333333333333333 
0.3333333333333333 0.3333333333333333 0.3333333333333333 
0.2 0.2 0.6 
0.6 0.2 0.2 
</TABLE>
</DEFINITION>
<DEFINITION>
<FOR>C7orf44</FOR>
	<GIVEN>Carcinoma</GIVEN>
	<GIVEN>ANGPTL4</GIVEN>
<TABLE>
0.3333333333333333 0.3333333333333333 0.3333333333333333 
0.3333333333333333 0.3333333333333333 0.3333333333333333 
0.3333333333333333 0.3333333333333333 0.3333333333333333 
0.3333333333333333 0.3333333333333333 0.3333333333333333 
0.2 0.2 0.6 
0.6 0.2 0.2 
</TABLE>
</DEFINITION>
<DEFINITION>
<FOR>BUB3</FOR>
	<GIVEN>Carcinoma</GIVEN>
	<GIVEN>ANGPTL4</GIVEN>
<TABLE>
0.3333333333333333 0.3333333333333333 0.3333333333333333 
0.3333333333333333 0.3333333333333333 0.3333333333333333 
0.3333333333333333 0.3333333333333333 0.3333333333333333 
0.3333333333333333 0.3333333333333333 0.3333333333333333 
0.2 0.2 0.6 
0.6 0.2 0.2 
</TABLE>
</DEFINITION>
<DEFINITION>
<FOR>SMCHD1</FOR>
	<GIVEN>Carcinoma</GIVEN>
	<GIVEN>ANGPTL4</GIVEN>
<TABLE>
0.3333333333333333 0.3333333333333333 0.3333333333333333 
0.3333333333333333 0.3333333333333333 0.3333333333333333 
0.3333333333333333 0.3333333333333333 0.3333333333333333 
0.3333333333333333 0.3333333333333333 0.3333333333333333 
0.2 0.2 0.6 
0.6 0.2 0.2 
</TABLE>
</DEFINITION>
<DEFINITION>
<FOR>WWC1</FOR>
	<GIVEN>Carcinoma</GIVEN>
	<GIVEN>ANGPTL4</GIVEN>
<TABLE>
0.3333333333333333 0.3333333333333333 0.3333333333333333 
0.3333333333333333 0.3333333333333333 0.3333333333333333 
0.3333333333333333 0.3333333333333333 0.3333333333333333 
0.3333333333333333 0.3333333333333333 0.3333333333333333 
0.2 0.2 0.6 
0.6 0.2 0.2 
</TABLE>
</DEFINITION>
<DEFINITION>
<FOR>TCOF1</FOR>
	<GIVEN>Carcinoma</GIVEN>
	<GIVEN>ANGPTL4</GIVEN>
<TABLE>
0.3333333333333333 0.3333333333333333 0.3333333333333333 
0.3333333333333333 0.3333333333333333 0.3333333333333333 
0.3333333333333333 0.3333333333333333 0.3333333333333333 
0.3333333333333333 0.3333333333333333 0.3333333333333333 
0.2 0.2 0.6 
0.6 0.2 0.2 
</TABLE>
</DEFINITION>
</NETWORK>
</BIF>
